digraph Tree {
node [shape=box] ;
0 [label="X[0] <= 6.5\ngini = 0.5\nsamples = 104\nvalue = [52, 52]"] ;
1 [label="X[1] <= 13850000.0\ngini = 0.477\nsamples = 79\nvalue = [48, 31]"] ;
0 -> 1 [labeldistance=2.5, labelangle=45, headlabel="True"] ;
2 [label="gini = 0.0\nsamples = 9\nvalue = [9, 0]"] ;
1 -> 2 ;
3 [label="X[1] <= 77550000.0\ngini = 0.493\nsamples = 70\nvalue = [39, 31]"] ;
1 -> 3 ;
4 [label="X[0] <= 3.5\ngini = 0.32\nsamples = 10\nvalue = [2, 8]"] ;
3 -> 4 ;
5 [label="gini = 0.0\nsamples = 8\nvalue = [0, 8]"] ;
4 -> 5 ;
6 [label="gini = 0.0\nsamples = 2\nvalue = [2, 0]"] ;
4 -> 6 ;
7 [label="X[1] <= 1459949952.0\ngini = 0.473\nsamples = 60\nvalue = [37, 23]"] ;
3 -> 7 ;
8 [label="X[1] <= 180250000.0\ngini = 0.388\nsamples = 38\nvalue = [28, 10]"] ;
7 -> 8 ;
9 [label="X[0] <= 2.0\ngini = 0.5\nsamples = 10\nvalue = [5, 5]"] ;
8 -> 9 ;
10 [label="gini = 0.0\nsamples = 3\nvalue = [0, 3]"] ;
9 -> 10 ;
11 [label="X[1] <= 126600000.0\ngini = 0.408\nsamples = 7\nvalue = [5, 2]"] ;
9 -> 11 ;
12 [label="gini = 0.0\nsamples = 5\nvalue = [5, 0]"] ;
11 -> 12 ;
13 [label="gini = 0.0\nsamples = 2\nvalue = [0, 2]"] ;
11 -> 13 ;
14 [label="X[0] <= 3.0\ngini = 0.293\nsamples = 28\nvalue = [23, 5]"] ;
8 -> 14 ;
15 [label="gini = 0.0\nsamples = 12\nvalue = [12, 0]"] ;
14 -> 15 ;
16 [label="X[1] <= 291300000.0\ngini = 0.43\nsamples = 16\nvalue = [11, 5]"] ;
14 -> 16 ;
17 [label="X[1] <= 263250000.0\ngini = 0.165\nsamples = 11\nvalue = [10, 1]"] ;
16 -> 17 ;
18 [label="gini = 0.0\nsamples = 5\nvalue = [5, 0]"] ;
17 -> 18 ;
19 [label="X[1] <= 268850000.0\ngini = 0.278\nsamples = 6\nvalue = [5, 1]"] ;
17 -> 19 ;
20 [label="gini = 0.0\nsamples = 1\nvalue = [0, 1]"] ;
19 -> 20 ;
21 [label="gini = 0.0\nsamples = 5\nvalue = [5, 0]"] ;
19 -> 21 ;
22 [label="X[1] <= 1193800000.0\ngini = 0.32\nsamples = 5\nvalue = [1, 4]"] ;
16 -> 22 ;
23 [label="gini = 0.0\nsamples = 4\nvalue = [0, 4]"] ;
22 -> 23 ;
24 [label="gini = 0.0\nsamples = 1\nvalue = [1, 0]"] ;
22 -> 24 ;
25 [label="X[0] <= 1.5\ngini = 0.483\nsamples = 22\nvalue = [9, 13]"] ;
7 -> 25 ;
26 [label="gini = 0.0\nsamples = 6\nvalue = [6, 0]"] ;
25 -> 26 ;
27 [label="X[0] <= 4.5\ngini = 0.305\nsamples = 16\nvalue = [3, 13]"] ;
25 -> 27 ;
28 [label="gini = 0.0\nsamples = 13\nvalue = [0, 13]"] ;
27 -> 28 ;
29 [label="gini = 0.0\nsamples = 3\nvalue = [3, 0]"] ;
27 -> 29 ;
30 [label="X[1] <= 157900000.0\ngini = 0.269\nsamples = 25\nvalue = [4, 21]"] ;
0 -> 30 [labeldistance=2.5, labelangle=-45, headlabel="False"] ;
31 [label="gini = 0.0\nsamples = 4\nvalue = [4, 0]"] ;
30 -> 31 ;
32 [label="gini = 0.0\nsamples = 21\nvalue = [0, 21]"] ;
30 -> 32 ;
}